<?xml version="1.0"?>
<opencv_storage>
<!-- Created using Computer Vision System Toolbox(tm) for MATLAB(R) -->
<!-- Version 9.3.0.713579 (R2017b) -->
<!-- Compatible with OpenCV 3.1 -->
<cascade>
  <stageType>BOOST</stageType>
  <featureType>HOG</featureType>
  <height>32</height>
  <width>80</width>
  <stageParams>
    <boostType>GAB</boostType>
    <minHitRate>9.9500000476837158e-01</minHitRate>
    <maxFalseAlarm>1.0000000149011612e-01</maxFalseAlarm>
    <weightTrimRate>9.4999999999999996e-01</weightTrimRate>
    <maxDepth>1</maxDepth>
    <maxWeakCount>100</maxWeakCount></stageParams>
  <featureParams>
    <maxCatCount>0</maxCatCount>
    <featSize>36</featSize></featureParams>
  <stageNum>4</stageNum>
  <stages>
    <!-- stage 0 -->
    <_>
      <maxWeakCount>6</maxWeakCount>
      <stageThreshold>-1.0676873922348022e+00</stageThreshold>
      <weakClassifiers>
        <_>
          <internalNodes>
            0 -1 22 3.8193110376596451e-03</internalNodes>
          <leafValues>
            6.9039148092269897e-01 -8.7867295742034912e-01</leafValues></_>
        <_>
          <internalNodes>
            0 -1 9 4.7165028750896454e-02</internalNodes>
          <leafValues>
            -8.6578577756881714e-01 5.0470525026321411e-01</leafValues></_>
        <_>
          <internalNodes>
            0 -1 18 7.9900197684764862e-02</internalNodes>
          <leafValues>
            -8.0891644954681396e-01 4.7718244791030884e-01</leafValues></_>
        <_>
          <internalNodes>
            0 -1 28 3.4640349447727203e-02</internalNodes>
          <leafValues>
            -7.1961760520935059e-01 6.9226229190826416e-01</leafValues></_>
        <_>
          <internalNodes>
            0 -1 11 1.1932805180549622e-02</internalNodes>
          <leafValues>
            -8.8219577074050903e-01 3.9561855792999268e-01</leafValues></_>
        <_>
          <internalNodes>
            0 -1 6 3.9890334010124207e-02</internalNodes>
          <leafValues>
            -8.4690302610397339e-01 4.8130655288696289e-01</leafValues></_></weakClassifiers></_>
    <!-- stage 1 -->
    <_>
      <maxWeakCount>9</maxWeakCount>
      <stageThreshold>-9.8393648862838745e-01</stageThreshold>
      <weakClassifiers>
        <_>
          <internalNodes>
            0 -1 21 3.8441969081759453e-03</internalNodes>
          <leafValues>
            4.7619047760963440e-01 -7.9591834545135498e-01</leafValues></_>
        <_>
          <internalNodes>
            0 -1 15 3.9958544075489044e-02</internalNodes>
          <leafValues>
            -6.5270328521728516e-01 5.2784729003906250e-01</leafValues></_>
        <_>
          <internalNodes>
            0 -1 23 1.6731429845094681e-02</internalNodes>
          <leafValues>
            -8.1147420406341553e-01 4.2217475175857544e-01</leafValues></_>
        <_>
          <internalNodes>
            0 -1 17 6.5445965155959129e-03</internalNodes>
          <leafValues>
            5.1932781934738159e-01 -7.3298186063766479e-01</leafValues></_>
        <_>
          <internalNodes>
            0 -1 10 1.4839686453342438e-02</internalNodes>
          <leafValues>
            -8.6732596158981323e-01 3.5626760125160217e-01</leafValues></_>
        <_>
          <internalNodes>
            0 -1 0 6.5147176384925842e-02</internalNodes>
          <leafValues>
            -7.6037055253982544e-01 4.1686385869979858e-01</leafValues></_>
        <_>
          <internalNodes>
            0 -1 12 1.2876451015472412e-02</internalNodes>
          <leafValues>
            3.5893550515174866e-01 -7.7941393852233887e-01</leafValues></_>
        <_>
          <internalNodes>
            0 -1 4 1.0596418753266335e-02</internalNodes>
          <leafValues>
            -7.8521573543548584e-01 3.6357799172401428e-01</leafValues></_>
        <_>
          <internalNodes>
            0 -1 20 3.6563001573085785e-02</internalNodes>
          <leafValues>
            -7.5569951534271240e-01 4.2864096164703369e-01</leafValues></_></weakClassifiers></_>
    <!-- stage 2 -->
    <_>
      <maxWeakCount>9</maxWeakCount>
      <stageThreshold>-4.5258325338363647e-01</stageThreshold>
      <weakClassifiers>
        <_>
          <internalNodes>
            0 -1 32 7.0748984813690186e-02</internalNodes>
          <leafValues>
            -8.9330023527145386e-01 2.2318126261234283e-01</leafValues></_>
        <_>
          <internalNodes>
            0 -1 1 1.9196936860680580e-02</internalNodes>
          <leafValues>
            -7.1589928865432739e-01 3.5853204131126404e-01</leafValues></_>
        <_>
          <internalNodes>
            0 -1 26 4.8659518361091614e-02</internalNodes>
          <leafValues>
            -7.5729542970657349e-01 3.3180117607116699e-01</leafValues></_>
        <_>
          <internalNodes>
            0 -1 14 1.5868717804551125e-02</internalNodes>
          <leafValues>
            -8.0412107706069946e-01 3.4411513805389404e-01</leafValues></_>
        <_>
          <internalNodes>
            0 -1 30 2.7059592306613922e-02</internalNodes>
          <leafValues>
            -8.6996656656265259e-01 2.8521391749382019e-01</leafValues></_>
        <_>
          <internalNodes>
            0 -1 16 3.9791800081729889e-02</internalNodes>
          <leafValues>
            -8.5485202074050903e-01 2.6349562406539917e-01</leafValues></_>
        <_>
          <internalNodes>
            0 -1 24 1.5188839286565781e-02</internalNodes>
          <leafValues>
            -6.5092301368713379e-01 4.4543662667274475e-01</leafValues></_>
        <_>
          <internalNodes>
            0 -1 7 1.0727904736995697e-02</internalNodes>
          <leafValues>
            3.3233153820037842e-01 -7.6424574851989746e-01</leafValues></_>
        <_>
          <internalNodes>
            0 -1 29 2.4312600493431091e-02</internalNodes>
          <leafValues>
            -7.9209470748901367e-01 3.5338947176933289e-01</leafValues></_></weakClassifiers></_>
    <!-- stage 3 -->
    <_>
      <maxWeakCount>11</maxWeakCount>
      <stageThreshold>-1.0851494967937469e-01</stageThreshold>
      <weakClassifiers>
        <_>
          <internalNodes>
            0 -1 19 8.1364557147026062e-02</internalNodes>
          <leafValues>
            -4.3999999761581421e-01 7.6554173231124878e-01</leafValues></_>
        <_>
          <internalNodes>
            0 -1 2 1.0271390900015831e-02</internalNodes>
          <leafValues>
            -6.4637255668640137e-01 5.3715538978576660e-01</leafValues></_>
        <_>
          <internalNodes>
            0 -1 8 3.7299230694770813e-02</internalNodes>
          <leafValues>
            -7.7566164731979370e-01 3.9202013611793518e-01</leafValues></_>
        <_>
          <internalNodes>
            0 -1 31 1.5211229212582111e-02</internalNodes>
          <leafValues>
            3.9827698469161987e-01 -7.0942342281341553e-01</leafValues></_>
        <_>
          <internalNodes>
            0 -1 5 2.6121385395526886e-02</internalNodes>
          <leafValues>
            -5.3528708219528198e-01 5.4673171043395996e-01</leafValues></_>
        <_>
          <internalNodes>
            0 -1 27 2.2314555943012238e-02</internalNodes>
          <leafValues>
            -6.0035836696624756e-01 4.6756315231323242e-01</leafValues></_>
        <_>
          <internalNodes>
            0 -1 25 1.9998587667942047e-02</internalNodes>
          <leafValues>
            -7.4807912111282349e-01 2.7102345228195190e-01</leafValues></_>
        <_>
          <internalNodes>
            0 -1 6 6.2666475772857666e-02</internalNodes>
          <leafValues>
            -6.0431867837905884e-01 4.4057720899581909e-01</leafValues></_>
        <_>
          <internalNodes>
            0 -1 10 2.0770624279975891e-02</internalNodes>
          <leafValues>
            -6.5707629919052124e-01 4.1345497965812683e-01</leafValues></_>
        <_>
          <internalNodes>
            0 -1 3 1.5977767109870911e-01</internalNodes>
          <leafValues>
            -3.5631406307220459e-01 8.2185417413711548e-01</leafValues></_>
        <_>
          <internalNodes>
            0 -1 13 3.6344137042760849e-02</internalNodes>
          <leafValues>
            -5.8928477764129639e-01 4.5931017398834229e-01</leafValues></_></weakClassifiers></_></stages>
  <features>
    <_>
      <rect>
        0 16 8 8 31</rect></_>
    <_>
      <rect>
        4 12 8 8 28</rect></_>
    <_>
      <rect>
        20 12 8 8 25</rect></_>
    <_>
      <rect>
        36 16 8 8 31</rect></_>
    <_>
      <rect>
        44 12 8 8 27</rect></_>
    <_>
      <rect>
        52 8 8 8 20</rect></_>
    <_>
      <rect>
        64 16 8 8 21</rect></_>
    <_>
      <rect>
        28 0 8 16 19</rect></_>
    <_>
      <rect>
        4 12 16 8 3</rect></_>
    <_>
      <rect>
        12 12 16 8 3</rect></_>
    <_>
      <rect>
        12 12 16 8 24</rect></_>
    <_>
      <rect>
        12 12 16 8 25</rect></_>
    <_>
      <rect>
        12 12 16 8 29</rect></_>
    <_>
      <rect>
        16 16 16 8 12</rect></_>
    <_>
      <rect>
        20 8 16 8 1</rect></_>
    <_>
      <rect>
        20 8 16 8 2</rect></_>
    <_>
      <rect>
        20 16 16 8 21</rect></_>
    <_>
      <rect>
        20 16 16 8 28</rect></_>
    <_>
      <rect>
        24 16 16 8 22</rect></_>
    <_>
      <rect>
        24 16 16 8 31</rect></_>
    <_>
      <rect>
        32 12 16 8 3</rect></_>
    <_>
      <rect>
        32 12 16 8 24</rect></_>
    <_>
      <rect>
        32 16 16 8 26</rect></_>
    <_>
      <rect>
        36 12 16 8 28</rect></_>
    <_>
      <rect>
        36 12 16 8 34</rect></_>
    <_>
      <rect>
        40 8 16 8 32</rect></_>
    <_>
      <rect>
        40 12 16 8 13</rect></_>
    <_>
      <rect>
        44 8 16 8 6</rect></_>
    <_>
      <rect>
        48 0 16 8 23</rect></_>
    <_>
      <rect>
        48 8 16 8 5</rect></_>
    <_>
      <rect>
        48 16 16 8 3</rect></_>
    <_>
      <rect>
        20 0 16 16 32</rect></_>
    <_>
      <rect>
        0 0 32 16 31</rect></_></features></cascade>
</opencv_storage>
